1.9439009417640378,0.23055113168184604,0.17305454581005644,-0.14211049692813565,-1.4191089941825803,0.30081327023602034,0.6971161103666427,-10.636261591797211,0.18736135420112082,0.2537212421066084,0.19903714577529794,0.1615821718847485,-2.35593199524485,0.23443500950299737,-0.007338309838892445,-0.23837773521023042,0.001583574831106174,0.4192344751627503,0.06414866086249517,-1.4841500393775429,0.4249045712047734
0.029201885575263785,0.006422622383685922,-0.1358329346885065,0.172283545817216,-0.0958754290197005,0.10017594583274253,-0.5331078318153628,-1.4595263414473583,-0.10669484623818906,-0.03349248785692516,-0.012573613598278341,0.07850720667765741,-0.2239073041213672,0.18728628174210551,0.36700548158132923,0.1653319677720028,0.0002306091645013783,-0.17903957996837425,0.3864532311064845,0.09550850003834503,0.0032700017412710123
-0.1041537937641335,-0.05011061213576754,0.041836574313872416,-0.264535758466116,-0.08165885442212188,-0.09154699604837414,0.10045250793842952,1.3492477540453036,-0.11199021549221044,-0.11568329637654008,-0.1433866768576358,-0.22676817400921398,-0.12385708203996053,-0.11440854197869083,-0.010817425745295036,0.03765499826261812,-0.009803570694875708,-0.21034398965764284,-0.29359242499909743,-0.15440981900916798,0.30673806776320534
-4.98368376501028,-0.3879907052215195,-0.17605004658296136,0.059504295918049836,1.3703513636530844,-0.36400435821737187,-0.3395585731347623,9.298870652849695,-0.17556836644917154,-0.11919465550877896,0.11347043242236954,-0.1048975579503593,2.274874299627981,-0.40310952491416735,-0.7052650600049101,-0.22499880393722616,-0.0005643437636489102,-0.5484682871855099,-0.12122460140598774,1.1505535481679836,-1.4634046908950673
